<?xml version="1.0"?>
<opencv_storage>
<cascade>
  <stageType>BOOST</stageType>
  <featureType>HAAR</featureType>
  <height>80</height>
  <width>80</width>
  <stageParams>
    <boostType>GAB</boostType>
    <minHitRate>9.9500000476837158e-01</minHitRate>
    <maxFalseAlarm>5.0000000000000000e-01</maxFalseAlarm>
    <weightTrimRate>9.4999999999999996e-01</weightTrimRate>
    <maxDepth>1</maxDepth>
    <maxWeakCount>100</maxWeakCount></stageParams>
  <featureParams>
    <maxCatCount>0</maxCatCount>
    <featSize>1</featSize>
    <mode>BASIC</mode></featureParams>
  <stageNum>15</stageNum>
  <stages>
    <!-- stage 0 -->
    <_>
      <maxWeakCount>8</maxWeakCount>
      <stageThreshold>-8.6965125799179077e-01</stageThreshold>
      <weakClassifiers>
        <_>
          <internalNodes>
            0 -1 116 8.0596643965691328e-04</internalNodes>
          <leafValues>
            -4.5885285735130310e-01 6.8184310197830200e-01</leafValues></_>
        <_>
          <internalNodes>
            0 -1 14 -7.9331645974889398e-04</internalNodes>
          <leafValues>
            4.0532499551773071e-01 -6.1409723758697510e-01</leafValues></_>
        <_>
          <internalNodes>
            0 -1 44 -4.9387883336748928e-05</internalNodes>
          <leafValues>
            4.3117645382881165e-01 -4.0284019708633423e-01</leafValues></_>
        <_>
          <internalNodes>
            0 -1 76 -1.0454179573571309e-04</internalNodes>
          <leafValues>
            3.0680793523788452e-01 -5.2334171533584595e-01</leafValues></_>
        <_>
          <internalNodes>
            0 -1 63 2.4020345881581306e-03</internalNodes>
          <leafValues>
            2.2296106815338135e-01 -7.8466755151748657e-01</leafValues></_>
        <_>
          <internalNodes>
            0 -1 150 -9.4880713731981814e-05</internalNodes>
          <leafValues>
            4.6741923689842224e-01 -3.5694602131843567e-01</leafValues></_>
        <_>
          <internalNodes>
            0 -1 24 -2.5106299668550491e-02</internalNodes>
          <leafValues>
            -8.9363765716552734e-01 1.8803918361663818e-01</leafValues></_>
        <_>
          <internalNodes>
            0 -1 56 3.3905655145645142e-03</internalNodes>
          <leafValues>
            2.5106132030487061e-01 -6.5192270278930664e-01</leafValues></_></weakClassifiers></_>
    <!-- stage 1 -->
    <_>
      <maxWeakCount>10</maxWeakCount>
      <stageThreshold>-8.2542884349822998e-01</stageThreshold>
      <weakClassifiers>
        <_>
          <internalNodes>
            0 -1 126 2.0376539032440633e-04</internalNodes>
          <leafValues>
            -4.1925466060638428e-01 5.7799088954925537e-01</leafValues></_>
        <_>
          <internalNodes>
            0 -1 137 4.4160505058243871e-04</internalNodes>
          <leafValues>
            -4.8986598849296570e-01 3.4586715698242188e-01</leafValues></_>
        <_>
          <internalNodes>
            0 -1 18 -3.8081048987805843e-03</internalNodes>
          <leafValues>
            3.8844627141952515e-01 -3.6471658945083618e-01</leafValues></_>
        <_>
          <internalNodes>
            0 -1 30 1.2203535065054893e-02</internalNodes>
          <leafValues>
            1.5800386667251587e-01 -9.4589930772781372e-01</leafValues></_>
        <_>
          <internalNodes>
            0 -1 16 -8.4737120196223259e-03</internalNodes>
          <leafValues>
            -8.5010123252868652e-01 1.4434123039245605e-01</leafValues></_>
        <_>
          <internalNodes>
            0 -1 103 2.0956719527021050e-04</internalNodes>
          <leafValues>
            1.2391379475593567e-01 -8.8863515853881836e-01</leafValues></_>
        <_>
          <internalNodes>
            0 -1 102 -2.6531738694757223e-04</internalNodes>
          <leafValues>
            -8.2794547080993652e-01 1.4991454780101776e-01</leafValues></_>
        <_>
          <internalNodes>
            0 -1 127 -6.9990125484764576e-04</internalNodes>
          <leafValues>
            6.1422663927078247e-01 -2.8503119945526123e-01</leafValues></_>
        <_>
          <internalNodes>
            0 -1 105 -4.2002401314675808e-03</internalNodes>
          <leafValues>
            6.9203650951385498e-01 -2.4191072583198547e-01</leafValues></_>
        <_>
          <internalNodes>
            0 -1 29 1.3119309442117810e-03</internalNodes>
          <leafValues>
            -3.5398596525192261e-01 4.5370787382125854e-01</leafValues></_></weakClassifiers></_>
    <!-- stage 2 -->
    <_>
      <maxWeakCount>9</maxWeakCount>
      <stageThreshold>-5.2886921167373657e-01</stageThreshold>
      <weakClassifiers>
        <_>
          <internalNodes>
            0 -1 71 -2.9201171128079295e-04</internalNodes>
          <leafValues>
            5.3630203008651733e-01 -4.1681572794914246e-01</leafValues></_>
        <_>
          <internalNodes>
            0 -1 47 8.0811930820345879e-03</internalNodes>
          <leafValues>
            2.4381245672702789e-01 -7.2638332843780518e-01</leafValues></_>
        <_>
          <internalNodes>
            0 -1 125 -4.5037409290671349e-04</internalNodes>
          <leafValues>
            -5.9163403511047363e-01 2.7099710702896118e-01</leafValues></_>
        <_>
          <internalNodes>
            0 -1 82 9.8663964308798313e-05</internalNodes>
          <leafValues>
            1.0623778402805328e-01 -9.0489029884338379e-01</leafValues></_>
        <_>
          <internalNodes>
            0 -1 33 -6.4278943464159966e-03</internalNodes>
          <leafValues>
            7.8481638431549072e-01 -1.9051504135131836e-01</leafValues></_>
        <_>
          <internalNodes>
            0 -1 109 2.8559691272675991e-03</internalNodes>
          <leafValues>
            -3.1199708580970764e-01 6.1217874288558960e-01</leafValues></_>
        <_>
          <internalNodes>
            0 -1 83 -1.7044268315657973e-04</internalNodes>
          <leafValues>
            -8.5351628065109253e-01 1.9746442139148712e-01</leafValues></_>
        <_>
          <internalNodes>
            0 -1 43 -2.5259723770432174e-04</internalNodes>
          <leafValues>
            4.0821707248687744e-01 -3.3155003190040588e-01</leafValues></_>
        <_>
          <internalNodes>
            0 -1 40 -2.8819018974900246e-02</internalNodes>
          <leafValues>
            -7.6511383056640625e-01 1.7485789954662323e-01</leafValues></_></weakClassifiers></_>
    <!-- stage 3 -->
    <_>
      <maxWeakCount>12</maxWeakCount>
      <stageThreshold>-9.1628187894821167e-01</stageThreshold>
      <weakClassifiers>
        <_>
          <internalNodes>
            0 -1 144 5.1648670341819525e-04</internalNodes>
          <leafValues>
            -1.6359697282314301e-01 6.0282021760940552e-01</leafValues></_>
        <_>
          <internalNodes>
            0 -1 17 -3.0778609216213226e-03</internalNodes>
          <leafValues>
            4.9461776018142700e-01 -2.5698795914649963e-01</leafValues></_>
        <_>
          <internalNodes>
            0 -1 138 -7.3386868280067574e-06</internalNodes>
          <leafValues>
            -5.9529805183410645e-01 2.2521941363811493e-01</leafValues></_>
        <_>
          <internalNodes>
            0 -1 42 -4.9969167448580265e-03</internalNodes>
          <leafValues>
            -8.2921379804611206e-01 1.4933502674102783e-01</leafValues></_>
        <_>
          <internalNodes>
            0 -1 157 2.8098286129534245e-03</internalNodes>
          <leafValues>
            -2.2914737462997437e-01 6.2908428907394409e-01</leafValues></_>
        <_>
          <internalNodes>
            0 -1 162 -1.3044486986473203e-03</internalNodes>
          <leafValues>
            5.6728047132492065e-01 -2.8276866674423218e-01</leafValues></_>
        <_>
          <internalNodes>
            0 -1 59 8.4081413224339485e-03</internalNodes>
          <leafValues>
            2.2922961413860321e-01 -7.8760862350463867e-01</leafValues></_>
        <_>
          <internalNodes>
            0 -1 69 -7.8020477667450905e-03</internalNodes>
          <leafValues>
            6.9832432270050049e-01 -2.2656357288360596e-01</leafValues></_>
        <_>
          <internalNodes>
            0 -1 112 -7.0756766945123672e-04</internalNodes>
          <leafValues>
            5.5968934297561646e-01 -2.4800482392311096e-01</leafValues></_>
        <_>
          <internalNodes>
            0 -1 120 1.3356003910303116e-04</internalNodes>
          <leafValues>
            1.8209302425384521e-01 -9.5675867795944214e-01</leafValues></_>
        <_>
          <internalNodes>
            0 -1 119 -1.9869612879119813e-04</internalNodes>
          <leafValues>
            -9.0278542041778564e-01 8.5197389125823975e-02</leafValues></_>
        <_>
          <internalNodes>
            0 -1 151 -1.3973121531307697e-04</internalNodes>
          <leafValues>
            3.8095209002494812e-01 -3.1137520074844360e-01</leafValues></_></weakClassifiers></_>
    <!-- stage 4 -->
    <_>
      <maxWeakCount>11</maxWeakCount>
      <stageThreshold>-7.4961537122726440e-01</stageThreshold>
      <weakClassifiers>
        <_>
          <internalNodes>
            0 -1 90 -2.0992858335375786e-03</internalNodes>
          <leafValues>
            6.4637303352355957e-01 -1.1378353089094162e-01</leafValues></_>
        <_>
          <internalNodes>
            0 -1 160 -2.6058114599436522e-04</internalNodes>
          <leafValues>
            4.9996912479400635e-01 -2.5149026513099670e-01</leafValues></_>
        <_>
          <internalNodes>
            0 -1 12 -3.1886238139122725e-04</internalNodes>
          <leafValues>
            3.5168334841728210e-01 -3.9092957973480225e-01</leafValues></_>
        <_>
          <internalNodes>
            0 -1 13 -1.5041562728583813e-03</internalNodes>
          <leafValues>
            6.3215184211730957e-01 -1.9835482537746429e-01</leafValues></_>
        <_>
          <internalNodes>
            0 -1 34 -5.0438912585377693e-03</internalNodes>
          <leafValues>
            5.8954471349716187e-01 -2.6112917065620422e-01</leafValues></_>
        <_>
          <internalNodes>
            0 -1 124 1.0902008041739464e-02</internalNodes>
          <leafValues>
            2.2490534186363220e-01 -6.4832186698913574e-01</leafValues></_>
        <_>
          <internalNodes>
            0 -1 87 -3.6421064287424088e-03</internalNodes>
          <leafValues>
            6.6061776876449585e-01 -2.2064864635467529e-01</leafValues></_>
        <_>
          <internalNodes>
            0 -1 52 -1.7154967645183206e-03</internalNodes>
          <leafValues>
            -6.4585268497467041e-01 2.3964715003967285e-01</leafValues></_>
        <_>
          <internalNodes>
            0 -1 32 -1.8623286450747401e-05</internalNodes>
          <leafValues>
            3.4537890553474426e-01 -3.9630651473999023e-01</leafValues></_>
        <_>
          <internalNodes>
            0 -1 64 -2.3736822186037898e-04</internalNodes>
          <leafValues>
            -7.0946973562240601e-01 1.8778732419013977e-01</leafValues></_>
        <_>
          <internalNodes>
            0 -1 114 -4.4357860460877419e-03</internalNodes>
          <leafValues>
            8.1943380832672119e-01 -1.7482511699199677e-01</leafValues></_></weakClassifiers></_>
    <!-- stage 5 -->
    <_>
      <maxWeakCount>11</maxWeakCount>
      <stageThreshold>-6.4703512191772461e-01</stageThreshold>
      <weakClassifiers>
        <_>
          <internalNodes>
            0 -1 68 -1.8568572122603655e-03</internalNodes>
          <leafValues>
            5.8596491813659668e-01 -1.3879781961441040e-01</leafValues></_>
        <_>
          <internalNodes>
            0 -1 97 4.6384113375097513e-05</internalNodes>
          <leafValues>
            1.9740733504295349e-01 -7.9637306928634644e-01</leafValues></_>
        <_>
          <internalNodes>
            0 -1 9 -1.9607827998697758e-03</internalNodes>
          <leafValues>
            5.9742569923400879e-01 -2.3007075488567352e-01</leafValues></_>
        <_>
          <internalNodes>
            0 -1 135 -6.8276040256023407e-03</internalNodes>
          <leafValues>
            7.2919100522994995e-01 -1.9089932739734650e-01</leafValues></_>
        <_>
          <internalNodes>
            0 -1 23 1.2952793622389436e-03</internalNodes>
          <leafValues>
            -3.4526234865188599e-01 3.9276957511901855e-01</leafValues></_>
        <_>
          <internalNodes>
            0 -1 53 -2.3269995581358671e-03</internalNodes>
          <leafValues>
            -7.2103488445281982e-01 1.5434925258159637e-01</leafValues></_>
        <_>
          <internalNodes>
            0 -1 113 -4.3587351683527231e-04</internalNodes>
          <leafValues>
            5.8182346820831299e-01 -2.5082188844680786e-01</leafValues></_>
        <_>
          <internalNodes>
            0 -1 142 8.6536150774918497e-05</internalNodes>
          <leafValues>
            1.7368313670158386e-01 -8.1110596656799316e-01</leafValues></_>
        <_>
          <internalNodes>
            0 -1 8 1.7348548863083124e-04</internalNodes>
          <leafValues>
            -2.5461280345916748e-01 5.7698118686676025e-01</leafValues></_>
        <_>
          <internalNodes>
            0 -1 6 -7.8752974513918161e-04</internalNodes>
          <leafValues>
            4.2969137430191040e-01 -2.7605041861534119e-01</leafValues></_>
        <_>
          <internalNodes>
            0 -1 111 6.7988148657605052e-05</internalNodes>
          <leafValues>
            1.5660467743873596e-01 -7.8761911392211914e-01</leafValues></_></weakClassifiers></_>
    <!-- stage 6 -->
    <_>
      <maxWeakCount>11</maxWeakCount>
      <stageThreshold>-6.1786592006683350e-01</stageThreshold>
      <weakClassifiers>
        <_>
          <internalNodes>
            0 -1 131 5.0967815332114697e-04</internalNodes>
          <leafValues>
            -2.8613570332527161e-01 5.4904979467391968e-01</leafValues></_>
        <_>
          <internalNodes>
            0 -1 140 7.7445394708774984e-05</internalNodes>
          <leafValues>
            2.1499411761760712e-01 -7.9323327541351318e-01</leafValues></_>
        <_>
          <internalNodes>
            0 -1 78 -8.3710838225670159e-05</internalNodes>
          <leafValues>
            2.9141128063201904e-01 -4.7663849592208862e-01</leafValues></_>
        <_>
          <internalNodes>
            0 -1 156 2.6438129134476185e-04</internalNodes>
          <leafValues>
            -2.8071078658103943e-01 4.7308492660522461e-01</leafValues></_>
        <_>
          <internalNodes>
            0 -1 74 1.4607936143875122e-02</internalNodes>
          <leafValues>
            1.8179228901863098e-01 -7.7798712253570557e-01</leafValues></_>
        <_>
          <internalNodes>
            0 -1 81 -3.0276227334979922e-05</internalNodes>
          <leafValues>
            2.7176380157470703e-01 -4.4462481141090393e-01</leafValues></_>
        <_>
          <internalNodes>
            0 -1 61 -5.7012364268302917e-03</internalNodes>
          <leafValues>
            7.0702272653579712e-01 -2.0942027866840363e-01</leafValues></_>
        <_>
          <internalNodes>
            0 -1 107 -1.2811139458790421e-04</internalNodes>
          <leafValues>
            4.6623459458351135e-01 -3.3992648124694824e-01</leafValues></_>
        <_>
          <internalNodes>
            0 -1 35 -3.5242990124970675e-03</internalNodes>
          <leafValues>
            -6.1087298393249512e-01 2.5744241476058960e-01</leafValues></_>
        <_>
          <internalNodes>
            0 -1 38 3.4003484994173050e-02</internalNodes>
          <leafValues>
            1.1743126809597015e-01 -8.8582712411880493e-01</leafValues></_>
        <_>
          <internalNodes>
            0 -1 66 2.4392465129494667e-03</internalNodes>
          <leafValues>
            2.0790800452232361e-01 -6.2018740177154541e-01</leafValues></_></weakClassifiers></_>
    <!-- stage 7 -->
    <_>
      <maxWeakCount>12</maxWeakCount>
      <stageThreshold>-6.9855684041976929e-01</stageThreshold>
      <weakClassifiers>
        <_>
          <internalNodes>
            0 -1 139 -8.7312779214698821e-05</internalNodes>
          <leafValues>
            -5.6132078170776367e-01 5.0567924976348877e-01</leafValues></_>
        <_>
          <internalNodes>
            0 -1 129 -2.8337055118754506e-04</internalNodes>
          <leafValues>
            3.3435493707656860e-01 -4.4105422496795654e-01</leafValues></_>
        <_>
          <internalNodes>
            0 -1 122 -1.4955160440877080e-04</internalNodes>
          <leafValues>
            3.7082827091217041e-01 -3.9204779267311096e-01</leafValues></_>
        <_>
          <internalNodes>
            0 -1 136 2.4543155450373888e-04</internalNodes>
          <leafValues>
            1.4511537551879883e-01 -7.6976460218429565e-01</leafValues></_>
        <_>
          <internalNodes>
            0 -1 3 -3.9893463253974915e-03</internalNodes>
          <leafValues>
            5.5599564313888550e-01 -2.3815801739692688e-01</leafValues></_>
        <_>
          <internalNodes>
            0 -1 28 -6.3123330473899841e-03</internalNodes>
          <leafValues>
            -5.5619281530380249e-01 2.2255261242389679e-01</leafValues></_>
        <_>
          <internalNodes>
            0 -1 121 5.2745093125849962e-04</internalNodes>
          <leafValues>
            -3.2370531558990479e-01 3.7289735674858093e-01</leafValues></_>
        <_>
          <internalNodes>
            0 -1 75 -2.9810247942805290e-03</internalNodes>
          <leafValues>
            4.7885069251060486e-01 -2.7030166983604431e-01</leafValues></_>
        <_>
          <internalNodes>
            0 -1 20 -2.5721224956214428e-03</internalNodes>
          <leafValues>
            6.4464807510375977e-01 -2.0167589187622070e-01</leafValues></_>
        <_>
          <internalNodes>
            0 -1 133 -2.7242768555879593e-04</internalNodes>
          <leafValues>
            -7.7222758531570435e-01 1.8591652810573578e-01</leafValues></_>
        <_>
          <internalNodes>
            0 -1 99 -8.9066335931420326e-05</internalNodes>
          <leafValues>
            4.4186812639236450e-01 -3.4548589587211609e-01</leafValues></_>
        <_>
          <internalNodes>
            0 -1 58 2.5029238313436508e-03</internalNodes>
          <leafValues>
            1.7728595435619354e-01 -7.4827373027801514e-01</leafValues></_></weakClassifiers></_>
    <!-- stage 8 -->
    <_>
      <maxWeakCount>11</maxWeakCount>
      <stageThreshold>-8.5326051712036133e-01</stageThreshold>
      <weakClassifiers>
        <_>
          <internalNodes>
            0 -1 65 -1.1506776791065931e-03</internalNodes>
          <leafValues>
            -3.9776951074600220e-01 5.2180165052413940e-01</leafValues></_>
        <_>
          <internalNodes>
            0 -1 72 -1.3633407070301473e-04</internalNodes>
          <leafValues>
            3.5217621922492981e-01 -3.5131505131721497e-01</leafValues></_>
        <_>
          <internalNodes>
            0 -1 5 -2.0026015117764473e-03</internalNodes>
          <leafValues>
            6.7316496372222900e-01 -1.8274651467800140e-01</leafValues></_>
        <_>
          <internalNodes>
            0 -1 143 -6.1366800218820572e-04</internalNodes>
          <leafValues>
            4.9647775292396545e-01 -2.7459046244621277e-01</leafValues></_>
        <_>
          <internalNodes>
            0 -1 108 8.2685874076560140e-05</internalNodes>
          <leafValues>
            1.9817249476909637e-01 -7.5591540336608887e-01</leafValues></_>
        <_>
          <internalNodes>
            0 -1 37 1.9695088267326355e-03</internalNodes>
          <leafValues>
            -2.6279965043067932e-01 5.0767391920089722e-01</leafValues></_>
        <_>
          <internalNodes>
            0 -1 70 -1.5404422301799059e-03</internalNodes>
          <leafValues>
            4.9752926826477051e-01 -2.8682196140289307e-01</leafValues></_>
        <_>
          <internalNodes>
            0 -1 41 -1.2860429473221302e-02</internalNodes>
          <leafValues>
            -7.7492964267730713e-01 2.0298148691654205e-01</leafValues></_>
        <_>
          <internalNodes>
            0 -1 62 -7.4220970273017883e-03</internalNodes>
          <leafValues>
            -9.2094159126281738e-01 1.0041911900043488e-01</leafValues></_>
        <_>
          <internalNodes>
            0 -1 159 -1.3490644050762057e-03</internalNodes>
          <leafValues>
            6.9535988569259644e-01 -2.1991360187530518e-01</leafValues></_>
        <_>
          <internalNodes>
            0 -1 115 -1.9994610920548439e-03</internalNodes>
          <leafValues>
            7.4361068010330200e-01 -1.6322809457778931e-01</leafValues></_></weakClassifiers></_>
    <!-- stage 9 -->
    <_>
      <maxWeakCount>10</maxWeakCount>
      <stageThreshold>-7.7537828683853149e-01</stageThreshold>
      <weakClassifiers>
        <_>
          <internalNodes>
            0 -1 54 -1.8536448478698730e-02</internalNodes>
          <leafValues>
            -7.5272727012634277e-01 4.6042552590370178e-01</leafValues></_>
        <_>
          <internalNodes>
            0 -1 91 -2.4859601398929954e-04</internalNodes>
          <leafValues>
            4.8639777302742004e-01 -3.7183204293251038e-01</leafValues></_>
        <_>
          <internalNodes>
            0 -1 148 1.7895459313876927e-04</internalNodes>
          <leafValues>
            -4.4255119562149048e-01 3.0940356850624084e-01</leafValues></_>
        <_>
          <internalNodes>
            0 -1 15 -8.6908414959907532e-03</internalNodes>
          <leafValues>
            -7.4468970298767090e-01 1.6110348701477051e-01</leafValues></_>
        <_>
          <internalNodes>
            0 -1 73 -1.2257910566404462e-04</internalNodes>
          <leafValues>
            5.0770288705825806e-01 -2.4461026489734650e-01</leafValues></_>
        <_>
          <internalNodes>
            0 -1 39 -3.6320984363555908e-03</internalNodes>
          <leafValues>
            5.1419031620025635e-01 -2.6362225413322449e-01</leafValues></_>
        <_>
          <internalNodes>
            0 -1 96 -3.0773491598665714e-03</internalNodes>
          <leafValues>
            -8.8295871019363403e-01 1.5280748903751373e-01</leafValues></_>
        <_>
          <internalNodes>
            0 -1 132 7.8330107498914003e-05</internalNodes>
          <leafValues>
            -3.7122270464897156e-01 3.2108810544013977e-01</leafValues></_>
        <_>
          <internalNodes>
            0 -1 106 1.2453319504857063e-04</internalNodes>
          <leafValues>
            1.5275299549102783e-01 -8.2506734132766724e-01</leafValues></_>
        <_>
          <internalNodes>
            0 -1 158 -3.3115204423666000e-03</internalNodes>
          <leafValues>
            6.0892659425735474e-01 -2.3974207043647766e-01</leafValues></_></weakClassifiers></_>
    <!-- stage 10 -->
    <_>
      <maxWeakCount>11</maxWeakCount>
      <stageThreshold>-7.7819961309432983e-01</stageThreshold>
      <weakClassifiers>
        <_>
          <internalNodes>
            0 -1 45 1.1048007756471634e-02</internalNodes>
          <leafValues>
            4.8808473348617554e-01 -6.4345401525497437e-01</leafValues></_>
        <_>
          <internalNodes>
            0 -1 92 4.6122755156829953e-04</internalNodes>
          <leafValues>
            -4.8371088504791260e-01 2.9312217235565186e-01</leafValues></_>
        <_>
          <internalNodes>
            0 -1 149 -5.6010743719525635e-05</internalNodes>
          <leafValues>
            -6.8162202835083008e-01 2.1229392290115356e-01</leafValues></_>
        <_>
          <internalNodes>
            0 -1 48 -6.5831239335238934e-03</internalNodes>
          <leafValues>
            4.9204361438751221e-01 -2.6794913411140442e-01</leafValues></_>
        <_>
          <internalNodes>
            0 -1 93 -1.3130038860253990e-04</internalNodes>
          <leafValues>
            -8.3737504482269287e-01 1.4366590976715088e-01</leafValues></_>
        <_>
          <internalNodes>
            0 -1 10 2.5653029297245666e-05</internalNodes>
          <leafValues>
            -2.9657292366027832e-01 4.3881177902221680e-01</leafValues></_>
        <_>
          <internalNodes>
            0 -1 80 -8.0439087469130754e-04</internalNodes>
          <leafValues>
            5.4492604732513428e-01 -2.5087192654609680e-01</leafValues></_>
        <_>
          <internalNodes>
            0 -1 123 3.6970630753785372e-04</internalNodes>
          <leafValues>
            -3.8013103604316711e-01 4.5119959115982056e-01</leafValues></_>
        <_>
          <internalNodes>
            0 -1 31 8.2021914422512054e-03</internalNodes>
          <leafValues>
            2.5530311465263367e-01 -6.9827359914779663e-01</leafValues></_>
        <_>
          <internalNodes>
            0 -1 100 1.8231105059385300e-04</internalNodes>
          <leafValues>
            1.1921072006225586e-01 -9.0744799375534058e-01</leafValues></_>
        <_>
          <internalNodes>
            0 -1 110 1.1681509204208851e-03</internalNodes>
          <leafValues>
            -5.0287306308746338e-01 2.3431822657585144e-01</leafValues></_></weakClassifiers></_>
    <!-- stage 11 -->
    <_>
      <maxWeakCount>12</maxWeakCount>
      <stageThreshold>-9.3973356485366821e-01</stageThreshold>
      <weakClassifiers>
        <_>
          <internalNodes>
            0 -1 25 -7.8273378312587738e-03</internalNodes>
          <leafValues>
            -6.8707484006881714e-01 4.6203345060348511e-01</leafValues></_>
        <_>
          <internalNodes>
            0 -1 46 1.6482113860547543e-03</internalNodes>
          <leafValues>
            2.9373642802238464e-01 -5.2711206674575806e-01</leafValues></_>
        <_>
          <internalNodes>
            0 -1 130 5.6924996897578239e-04</internalNodes>
          <leafValues>
            2.5975301861763000e-01 -4.9664452672004700e-01</leafValues></_>
        <_>
          <internalNodes>
            0 -1 128 -3.9137220010161400e-03</internalNodes>
          <leafValues>
            7.4179816246032715e-01 -1.9718389213085175e-01</leafValues></_>
        <_>
          <internalNodes>
            0 -1 161 -3.8737038266845047e-05</internalNodes>
          <leafValues>
            4.9405971169471741e-01 -3.2798475027084351e-01</leafValues></_>
        <_>
          <internalNodes>
            0 -1 49 -2.7480688877403736e-03</internalNodes>
          <leafValues>
            6.9472771883010864e-01 -1.7919774353504181e-01</leafValues></_>
        <_>
          <internalNodes>
            0 -1 2 6.2049562111496925e-03</internalNodes>
          <leafValues>
            -1.9576309621334076e-01 7.0416504144668579e-01</leafValues></_>
        <_>
          <internalNodes>
            0 -1 4 -1.3622418045997620e-02</internalNodes>
          <leafValues>
            6.2579196691513062e-01 -1.8033586442470551e-01</leafValues></_>
        <_>
          <internalNodes>
            0 -1 19 1.4146193279884756e-04</internalNodes>
          <leafValues>
            -3.3044829964637756e-01 4.0120905637741089e-01</leafValues></_>
        <_>
          <internalNodes>
            0 -1 134 1.7484319687355310e-04</internalNodes>
          <leafValues>
            -4.8532804846763611e-01 2.9340344667434692e-01</leafValues></_>
        <_>
          <internalNodes>
            0 -1 141 -1.2983899796381593e-04</internalNodes>
          <leafValues>
            5.1677191257476807e-01 -2.6865023374557495e-01</leafValues></_>
        <_>
          <internalNodes>
            0 -1 104 1.0129173460882157e-04</internalNodes>
          <leafValues>
            1.8730147182941437e-01 -8.4434580802917480e-01</leafValues></_></weakClassifiers></_>
    <!-- stage 12 -->
    <_>
      <maxWeakCount>12</maxWeakCount>
      <stageThreshold>-6.9593656063079834e-01</stageThreshold>
      <weakClassifiers>
        <_>
          <internalNodes>
            0 -1 22 3.1772300601005554e-02</internalNodes>
          <leafValues>
            4.8375919461250305e-01 -7.6582276821136475e-01</leafValues></_>
        <_>
          <internalNodes>
            0 -1 11 1.6246924642473459e-03</internalNodes>
          <leafValues>
            -4.0488058328628540e-01 3.8384664058685303e-01</leafValues></_>
        <_>
          <internalNodes>
            0 -1 98 1.9670253095682710e-05</internalNodes>
          <leafValues>
            2.0889411866664886e-01 -7.1023434400558472e-01</leafValues></_>
        <_>
          <internalNodes>
            0 -1 55 9.2177547048777342e-04</internalNodes>
          <leafValues>
            2.1820102632045746e-01 -6.1273837089538574e-01</leafValues></_>
        <_>
          <internalNodes>
            0 -1 21 -4.2637987062335014e-03</internalNodes>
          <leafValues>
            8.7769061326980591e-01 -1.8187065422534943e-01</leafValues></_>
        <_>
          <internalNodes>
            0 -1 50 -1.6515710740350187e-04</internalNodes>
          <leafValues>
            3.8535434007644653e-01 -3.9247214794158936e-01</leafValues></_>
        <_>
          <internalNodes>
            0 -1 94 -1.4047443401068449e-03</internalNodes>
          <leafValues>
            -5.8726990222930908e-01 2.6365289092063904e-01</leafValues></_>
        <_>
          <internalNodes>
            0 -1 57 -3.9491307688876987e-04</internalNodes>
          <leafValues>
            4.7134327888488770e-01 -3.2134678959846497e-01</leafValues></_>
        <_>
          <internalNodes>
            0 -1 95 -5.2657382184406742e-05</internalNodes>
          <leafValues>
            -7.9241532087326050e-01 1.7573122680187225e-01</leafValues></_>
        <_>
          <internalNodes>
            0 -1 152 9.6739851869642735e-04</internalNodes>
          <leafValues>
            -2.5359323620796204e-01 5.8661252260208130e-01</leafValues></_>
        <_>
          <internalNodes>
            0 -1 67 -2.3673681425862014e-04</internalNodes>
          <leafValues>
            -8.8532197475433350e-01 1.7529687285423279e-01</leafValues></_>
        <_>
          <internalNodes>
            0 -1 154 3.4131444990634918e-03</internalNodes>
          <leafValues>
            -2.5793227553367615e-01 6.9764691591262817e-01</leafValues></_></weakClassifiers></_>
    <!-- stage 13 -->
    <_>
      <maxWeakCount>10</maxWeakCount>
      <stageThreshold>-7.7823585271835327e-01</stageThreshold>
      <weakClassifiers>
        <_>
          <internalNodes>
            0 -1 36 1.5320923179388046e-02</internalNodes>
          <leafValues>
            4.4444444775581360e-01 -7.2690761089324951e-01</leafValues></_>
        <_>
          <internalNodes>
            0 -1 27 1.2563271448016167e-03</internalNodes>
          <leafValues>
            -3.5906702280044556e-01 4.1590377688407898e-01</leafValues></_>
        <_>
          <internalNodes>
            0 -1 79 -9.3669183552265167e-03</internalNodes>
          <leafValues>
            6.4232963323593140e-01 -2.4592345952987671e-01</leafValues></_>
        <_>
          <internalNodes>
            0 -1 86 5.8384509757161140e-03</internalNodes>
          <leafValues>
            -3.1986847519874573e-01 6.3834023475646973e-01</leafValues></_>
        <_>
          <internalNodes>
            0 -1 51 6.1665121465921402e-03</internalNodes>
          <leafValues>
            2.6916813850402832e-01 -7.9041105508804321e-01</leafValues></_>
        <_>
          <internalNodes>
            0 -1 117 -3.2262322492897511e-03</internalNodes>
          <leafValues>
            7.1126991510391235e-01 -2.0053105056285858e-01</leafValues></_>
        <_>
          <internalNodes>
            0 -1 85 -2.8280862607061863e-03</internalNodes>
          <leafValues>
            6.1310303211212158e-01 -2.3306924104690552e-01</leafValues></_>
        <_>
          <internalNodes>
            0 -1 84 1.4730502152815461e-03</internalNodes>
          <leafValues>
            -2.2894988954067230e-01 5.6051063537597656e-01</leafValues></_>
        <_>
          <internalNodes>
            0 -1 89 -2.8824614128097892e-04</internalNodes>
          <leafValues>
            -9.0500408411026001e-01 1.6167518496513367e-01</leafValues></_>
        <_>
          <internalNodes>
            0 -1 118 7.8085903078317642e-04</internalNodes>
          <leafValues>
            -5.1763916015625000e-01 2.1110427379608154e-01</leafValues></_></weakClassifiers></_>
    <!-- stage 14 -->
    <_>
      <maxWeakCount>13</maxWeakCount>
      <stageThreshold>-7.3732602596282959e-01</stageThreshold>
      <weakClassifiers>
        <_>
          <internalNodes>
            0 -1 88 8.0910902470350266e-03</internalNodes>
          <leafValues>
            5.0594693422317505e-01 -5.2619588375091553e-01</leafValues></_>
        <_>
          <internalNodes>
            0 -1 7 9.9634937942028046e-03</internalNodes>
          <leafValues>
            2.5839203596115112e-01 -5.9182649850845337e-01</leafValues></_>
        <_>
          <internalNodes>
            0 -1 60 -1.0931158903986216e-03</internalNodes>
          <leafValues>
            3.2189065217971802e-01 -4.1652712225914001e-01</leafValues></_>
        <_>
          <internalNodes>
            0 -1 155 1.4319617184810340e-04</internalNodes>
          <leafValues>
            -2.9770895838737488e-01 3.8089627027511597e-01</leafValues></_>
        <_>
          <internalNodes>
            0 -1 146 3.3563986653462052e-04</internalNodes>
          <leafValues>
            -2.7441349625587463e-01 4.8201972246170044e-01</leafValues></_>
        <_>
          <internalNodes>
            0 -1 77 1.2472467496991158e-03</internalNodes>
          <leafValues>
            1.7765176296234131e-01 -6.6965234279632568e-01</leafValues></_>
        <_>
          <internalNodes>
            0 -1 147 -1.4006537385284901e-03</internalNodes>
          <leafValues>
            5.2992612123489380e-01 -2.6198193430900574e-01</leafValues></_>
        <_>
          <internalNodes>
            0 -1 153 3.1970869167707860e-04</internalNodes>
          <leafValues>
            -2.1767112612724304e-01 6.0525006055831909e-01</leafValues></_>
        <_>
          <internalNodes>
            0 -1 26 -8.4000090137124062e-03</internalNodes>
          <leafValues>
            -8.1936258077621460e-01 1.8047927320003510e-01</leafValues></_>
        <_>
          <internalNodes>
            0 -1 0 -1.7922161146998405e-02</internalNodes>
          <leafValues>
            5.9274166822433472e-01 -2.2930172085762024e-01</leafValues></_>
        <_>
          <internalNodes>
            0 -1 1 4.7282157465815544e-03</internalNodes>
          <leafValues>
            -2.8663870692253113e-01 4.6483421325683594e-01</leafValues></_>
        <_>
          <internalNodes>
            0 -1 145 1.5998692833818495e-04</internalNodes>
          <leafValues>
            -4.5628008246421814e-01 2.3557564616203308e-01</leafValues></_>
        <_>
          <internalNodes>
            0 -1 101 -8.5210404358804226e-04</internalNodes>
          <leafValues>
            -8.6180210113525391e-01 1.2910611927509308e-01</leafValues></_></weakClassifiers></_></stages>
  <features>
    <_>
      <rects>
        <_>
          18 30 28 23 -1.</_>
        <_>
          32 30 14 23 2.</_></rects>
      <tilted>0</tilted></_>
    <_>
      <rects>
        <_>
          20 18 30 26 -1.</_>
        <_>
          20 18 15 13 2.</_>
        <_>
          35 31 15 13 2.</_></rects>
      <tilted>0</tilted></_>
    <_>
      <rects>
        <_>
          21 16 18 13 -1.</_>
        <_>
          27 16 6 13 3.</_></rects>
      <tilted>0</tilted></_>
    <_>
      <rects>
        <_>
          21 27 15 14 -1.</_>
        <_>
          26 27 5 14 3.</_></rects>
      <tilted>0</tilted></_>
    <_>
      <rects>
        <_>
          23 45 26 24 -1.</_>
        <_>
          23 53 26 8 3.</_></rects>
      <tilted>0</tilted></_>
    <_>
      <rects>
        <_>
          23 50 10 12 -1.</_>
        <_>
          23 50 5 6 2.</_>
        <_>
          28 56 5 6 2.</_></rects>
      <tilted>0</tilted></_>
    <_>
      <rects>
        <_>
          24 38 12 5 -1.</_>
        <_>
          28 38 4 5 3.</_></rects>
      <tilted>0</tilted></_>
    <_>
      <rects>
        <_>
          28 21 44 38 -1.</_>
        <_>
          28 21 22 19 2.</_>
        <_>
          50 40 22 19 2.</_></rects>
      <tilted>0</tilted></_>
    <_>
      <rects>
        <_>
          28 39 4 6 -1.</_>
        <_>
          28 39 2 3 2.</_>
        <_>
          30 42 2 3 2.</_></rects>
      <tilted>0</tilted></_>
    <_>
      <rects>
        <_>
          29 52 4 15 -1.</_>
        <_>
          29 57 4 5 3.</_></rects>
      <tilted>0</tilted></_>
    <_>
      <rects>
        <_>
          29 56 2 3 -1.</_>
        <_>
          30 56 1 3 2.</_></rects>
      <tilted>0</tilted></_>
    <_>
      <rects>
        <_>
          30 32 14 11 -1.</_>
        <_>
          37 32 7 11 2.</_></rects>
      <tilted>0</tilted></_>
    <_>
      <rects>
        <_>
          30 52 24 1 -1.</_>
        <_>
          42 52 12 1 2.</_></rects>
      <tilted>0</tilted></_>
    <_>
      <rects>
        <_>
          31 19 9 8 -1.</_>
        <_>
          34 19 3 8 3.</_></rects>
      <tilted>0</tilted></_>
    <_>
      <rects>
        <_>
          31 25 28 26 -1.</_>
        <_>
          31 25 14 13 2.</_>
        <_>
          45 38 14 13 2.</_></rects>
      <tilted>0</tilted></_>
    <_>
      <rects>
        <_>
          31 29 27 17 -1.</_>
        <_>
          40 29 9 17 3.</_></rects>
      <tilted>0</tilted></_>
    <_>
      <rects>
        <_>
          31 31 40 10 -1.</_>
        <_>
          51 31 20 10 2.</_></rects>
      <tilted>0</tilted></_>
    <_>
      <rects>
        <_>
          31 32 14 18 -1.</_>
        <_>
          31 32 7 9 2.</_>
        <_>
          38 41 7 9 2.</_></rects>
      <tilted>0</tilted></_>
    <_>
      <rects>
        <_>
          31 33 20 20 -1.</_>
        <_>
          31 33 10 10 2.</_>
        <_>
          41 43 10 10 2.</_></rects>
      <tilted>0</tilted></_>
    <_>
      <rects>
        <_>
          31 36 4 9 -1.</_>
        <_>
          33 36 2 9 2.</_></rects>
      <tilted>0</tilted></_>
    <_>
      <rects>
        <_>
          31 45 18 10 -1.</_>
        <_>
          37 45 6 10 3.</_></rects>
      <tilted>0</tilted></_>
    <_>
      <rects>
        <_>
          32 17 12 8 -1.</_>
        <_>
          36 17 4 8 3.</_></rects>
      <tilted>0</tilted></_>
    <_>
      <rects>
        <_>
          32 20 36 21 -1.</_>
        <_>
          44 20 12 21 3.</_></rects>
      <tilted>0</tilted></_>
    <_>
      <rects>
        <_>
          32 29 24 10 -1.</_>
        <_>
          40 29 8 10 3.</_></rects>
      <tilted>0</tilted></_>
    <_>
      <rects>
        <_>
          32 30 29 26 -1.</_>
        <_>
          32 43 29 13 2.</_></rects>
      <tilted>0</tilted></_>
    <_>
      <rects>
        <_>
          32 38 38 8 -1.</_>
        <_>
          51 38 19 8 2.</_></rects>
      <tilted>0</tilted></_>
    <_>
      <rects>
        <_>
          33 24 24 16 -1.</_>
        <_>
          45 24 12 16 2.</_></rects>
      <tilted>0</tilted></_>
    <_>
      <rects>
        <_>
          33 29 6 26 -1.</_>
        <_>
          33 42 6 13 2.</_></rects>
      <tilted>0</tilted></_>
    <_>
      <rects>
        <_>
          33 31 14 26 -1.</_>
        <_>
          33 44 14 13 2.</_></rects>
      <tilted>0</tilted></_>
    <_>
      <rects>
        <_>
          33 33 15 10 -1.</_>
        <_>
          38 33 5 10 3.</_></rects>
      <tilted>0</tilted></_>
    <_>
      <rects>
        <_>
          33 36 34 10 -1.</_>
        <_>
          50 36 17 10 2.</_></rects>
      <tilted>0</tilted></_>
    <_>
      <rects>
        <_>
          33 37 38 9 -1.</_>
        <_>
          52 37 19 9 2.</_></rects>
      <tilted>0</tilted></_>
    <_>
      <rects>
        <_>
          33 58 2 2 -1.</_>
        <_>
          33 59 2 1 2.</_></rects>
      <tilted>0</tilted></_>
    <_>
      <rects>
        <_>
          34 13 15 9 -1.</_>
        <_>
          39 13 5 9 3.</_></rects>
      <tilted>0</tilted></_>
    <_>
      <rects>
        <_>
          34 16 18 8 -1.</_>
        <_>
          40 16 6 8 3.</_></rects>
      <tilted>0</tilted></_>
    <_>
      <rects>
        <_>
          34 18 26 6 -1.</_>
        <_>
          47 18 13 6 2.</_></rects>
      <tilted>0</tilted></_>
    <_>
      <rects>
        <_>
          34 28 15 28 -1.</_>
        <_>
          34 42 15 14 2.</_></rects>
      <tilted>0</tilted></_>
    <_>
      <rects>
        <_>
          34 55 17 9 -1.</_>
        <_>
          34 58 17 3 3.</_></rects>
      <tilted>0</tilted></_>
    <_>
      <rects>
        <_>
          35 14 16 45 -1.</_>
        <_>
          35 29 16 15 3.</_></rects>
      <tilted>0</tilted></_>
    <_>
      <rects>
        <_>
          35 15 12 14 -1.</_>
        <_>
          39 15 4 14 3.</_></rects>
      <tilted>0</tilted></_>
    <_>
      <rects>
        <_>
          35 24 27 30 -1.</_>
        <_>
          35 39 27 15 2.</_></rects>
      <tilted>0</tilted></_>
    <_>
      <rects>
        <_>
          35 26 13 36 -1.</_>
        <_>
          35 38 13 12 3.</_></rects>
      <tilted>0</tilted></_>
    <_>
      <rects>
        <_>
          35 27 28 12 -1.</_>
        <_>
          49 27 14 12 2.</_></rects>
      <tilted>0</tilted></_>
    <_>
      <rects>
        <_>
          35 58 5 4 -1.</_>
        <_>
          35 60 5 2 2.</_></rects>
      <tilted>0</tilted></_>
    <_>
      <rects>
        <_>
          35 60 5 2 -1.</_>
        <_>
          35 61 5 1 2.</_></rects>
      <tilted>0</tilted></_>
    <_>
      <rects>
        <_>
          36 28 19 32 -1.</_>
        <_>
          36 44 19 16 2.</_></rects>
      <tilted>0</tilted></_>
    <_>
      <rects>
        <_>
          36 34 26 11 -1.</_>
        <_>
          49 34 13 11 2.</_></rects>
      <tilted>0</tilted></_>
    <_>
      <rects>
        <_>
          36 34 30 24 -1.</_>
        <_>
          36 46 30 12 2.</_></rects>
      <tilted>0</tilted></_>
    <_>
      <rects>
        <_>
          36 52 12 21 -1.</_>
        <_>
          36 59 12 7 3.</_></rects>
      <tilted>0</tilted></_>
    <_>
      <rects>
        <_>
          37 14 12 8 -1.</_>
        <_>
          41 14 4 8 3.</_></rects>
      <tilted>0</tilted></_>
    <_>
      <rects>
        <_>
          37 15 1 16 -1.</_>
        <_>
          37 23 1 8 2.</_></rects>
      <tilted>0</tilted></_>
    <_>
      <rects>
        <_>
          37 24 26 4 -1.</_>
        <_>
          50 24 13 4 2.</_></rects>
      <tilted>0</tilted></_>
    <_>
      <rects>
        <_>
          37 26 28 7 -1.</_>
        <_>
          51 26 14 7 2.</_></rects>
      <tilted>0</tilted></_>
    <_>
      <rects>
        <_>
          37 26 28 11 -1.</_>
        <_>
          51 26 14 11 2.</_></rects>
      <tilted>0</tilted></_>
    <_>
      <rects>
        <_>
          37 27 33 15 -1.</_>
        <_>
          48 27 11 15 3.</_></rects>
      <tilted>0</tilted></_>
    <_>
      <rects>
        <_>
          37 31 36 22 -1.</_>
        <_>
          37 42 36 11 2.</_></rects>
      <tilted>0</tilted></_>
    <_>
      <rects>
        <_>
          37 32 26 24 -1.</_>
        <_>
          37 44 26 12 2.</_></rects>
      <tilted>0</tilted></_>
    <_>
      <rects>
        <_>
          37 47 6 5 -1.</_>
        <_>
          40 47 3 5 2.</_></rects>
      <tilted>0</tilted></_>
    <_>
      <rects>
        <_>
          37 48 9 10 -1.</_>
        <_>
          37 53 9 5 2.</_></rects>
      <tilted>0</tilted></_>
    <_>
      <rects>
        <_>
          38 28 24 16 -1.</_>
        <_>
          50 28 12 16 2.</_></rects>
      <tilted>0</tilted></_>
    <_>
      <rects>
        <_>
          38 38 15 20 -1.</_>
        <_>
          43 38 5 20 3.</_></rects>
      <tilted>0</tilted></_>
    <_>
      <rects>
        <_>
          39 14 15 9 -1.</_>
        <_>
          44 14 5 9 3.</_></rects>
      <tilted>0</tilted></_>
    <_>
      <rects>
        <_>
          39 30 26 18 -1.</_>
        <_>
          52 30 13 18 2.</_></rects>
      <tilted>0</tilted></_>
    <_>
      <rects>
        <_>
          39 33 18 12 -1.</_>
        <_>
          48 33 9 12 2.</_></rects>
      <tilted>0</tilted></_>
    <_>
      <rects>
        <_>
          39 43 19 3 -1.</_>
        <_>
          39 44 19 1 3.</_></rects>
      <tilted>0</tilted></_>
    <_>
      <rects>
        <_>
          39 45 7 12 -1.</_>
        <_>
          39 51 7 6 2.</_></rects>
      <tilted>0</tilted></_>
    <_>
      <rects>
        <_>
          40 33 21 28 -1.</_>
        <_>
          40 47 21 14 2.</_></rects>
      <tilted>0</tilted></_>
    <_>
      <rects>
        <_>
          40 39 3 16 -1.</_>
        <_>
          41 39 1 16 3.</_></rects>
      <tilted>0</tilted></_>
    <_>
      <rects>
        <_>
          40 44 18 10 -1.</_>
        <_>
          46 44 6 10 3.</_></rects>
      <tilted>0</tilted></_>
    <_>
      <rects>
        <_>
          41 10 15 17 -1.</_>
        <_>
          46 10 5 17 3.</_></rects>
      <tilted>0</tilted></_>
    <_>
      <rects>
        <_>
          41 33 11 15 -1.</_>
        <_>
          41 38 11 5 3.</_></rects>
      <tilted>0</tilted></_>
    <_>
      <rects>
        <_>
          41 40 15 14 -1.</_>
        <_>
          46 40 5 14 3.</_></rects>
      <tilted>0</tilted></_>
    <_>
      <rects>
        <_>
          41 44 4 7 -1.</_>
        <_>
          43 44 2 7 2.</_></rects>
      <tilted>0</tilted></_>
    <_>
      <rects>
        <_>
          42 18 4 2 -1.</_>
        <_>
          44 18 2 2 2.</_></rects>
      <tilted>0</tilted></_>
    <_>
      <rects>
        <_>
          42 27 26 17 -1.</_>
        <_>
          55 27 13 17 2.</_></rects>
      <tilted>0</tilted></_>
    <_>
      <rects>
        <_>
          42 34 8 18 -1.</_>
        <_>
          42 40 8 6 3.</_></rects>
      <tilted>0</tilted></_>
    <_>
      <rects>
        <_>
          42 38 12 18 -1.</_>
        <_>
          46 38 4 18 3.</_></rects>
      <tilted>0</tilted></_>
    <_>
      <rects>
        <_>
          42 43 2 20 -1.</_>
        <_>
          42 53 2 10 2.</_></rects>
      <tilted>0</tilted></_>
    <_>
      <rects>
        <_>
          42 44 9 12 -1.</_>
        <_>
          45 44 3 12 3.</_></rects>
      <tilted>0</tilted></_>
    <_>
      <rects>
        <_>
          43 9 18 31 -1.</_>
        <_>
          49 9 6 31 3.</_></rects>
      <tilted>0</tilted></_>
    <_>
      <rects>
        <_>
          43 23 15 2 -1.</_>
        <_>
          48 23 5 2 3.</_></rects>
      <tilted>0</tilted></_>
    <_>
      <rects>
        <_>
          43 32 6 11 -1.</_>
        <_>
          46 32 3 11 2.</_></rects>
      <tilted>0</tilted></_>
    <_>
      <rects>
        <_>
          43 41 3 4 -1.</_>
        <_>
          44 41 1 4 3.</_></rects>
      <tilted>0</tilted></_>
    <_>
      <rects>
        <_>
          43 41 3 8 -1.</_>
        <_>
          44 41 1 8 3.</_></rects>
      <tilted>0</tilted></_>
    <_>
      <rects>
        <_>
          44 8 9 14 -1.</_>
        <_>
          47 8 3 14 3.</_></rects>
      <tilted>0</tilted></_>
    <_>
      <rects>
        <_>
          44 15 12 10 -1.</_>
        <_>
          48 15 4 10 3.</_></rects>
      <tilted>0</tilted></_>
    <_>
      <rects>
        <_>
          44 15 18 9 -1.</_>
        <_>
          50 15 6 9 3.</_></rects>
      <tilted>0</tilted></_>
    <_>
      <rects>
        <_>
          44 16 12 10 -1.</_>
        <_>
          48 16 4 10 3.</_></rects>
      <tilted>0</tilted></_>
    <_>
      <rects>
        <_>
          44 27 22 13 -1.</_>
        <_>
          55 27 11 13 2.</_></rects>
      <tilted>0</tilted></_>
    <_>
      <rects>
        <_>
          44 35 3 17 -1.</_>
        <_>
          45 35 1 17 3.</_></rects>
      <tilted>0</tilted></_>
    <_>
      <rects>
        <_>
          44 35 7 21 -1.</_>
        <_>
          44 42 7 7 3.</_></rects>
      <tilted>0</tilted></_>
    <_>
      <rects>
        <_>
          44 36 1 21 -1.</_>
        <_>
          44 43 1 7 3.</_></rects>
      <tilted>0</tilted></_>
    <_>
      <rects>
        <_>
          44 45 14 16 -1.</_>
        <_>
          44 53 14 8 2.</_></rects>
      <tilted>0</tilted></_>
    <_>
      <rects>
        <_>
          44 50 4 3 -1.</_>
        <_>
          44 51 4 1 3.</_></rects>
      <tilted>0</tilted></_>
    <_>
      <rects>
        <_>
          45 21 1 38 -1.</_>
        <_>
          45 40 1 19 2.</_></rects>
      <tilted>0</tilted></_>
    <_>
      <rects>
        <_>
          45 39 3 2 -1.</_>
        <_>
          46 39 1 2 3.</_></rects>
      <tilted>0</tilted></_>
    <_>
      <rects>
        <_>
          45 39 9 19 -1.</_>
        <_>
          48 39 3 19 3.</_></rects>
      <tilted>0</tilted></_>
    <_>
      <rects>
        <_>
          45 50 1 3 -1.</_>
        <_>
          45 51 1 1 3.</_></rects>
      <tilted>0</tilted></_>
    <_>
      <rects>
        <_>
          45 58 3 1 -1.</_>
        <_>
          46 58 1 1 3.</_></rects>
      <tilted>0</tilted></_>
    <_>
      <rects>
        <_>
          46 29 6 4 -1.</_>
        <_>
          49 29 3 4 2.</_></rects>
      <tilted>0</tilted></_>
    <_>
      <rects>
        <_>
          46 35 2 12 -1.</_>
        <_>
          46 35 1 6 2.</_>
        <_>
          47 41 1 6 2.</_></rects>
      <tilted>0</tilted></_>
    <_>
      <rects>
        <_>
          46 38 6 11 -1.</_>
        <_>
          48 38 2 11 3.</_></rects>
      <tilted>0</tilted></_>
    <_>
      <rects>
        <_>
          46 39 3 19 -1.</_>
        <_>
          47 39 1 19 3.</_></rects>
      <tilted>0</tilted></_>
    <_>
      <rects>
        <_>
          46 41 3 17 -1.</_>
        <_>
          47 41 1 17 3.</_></rects>
      <tilted>0</tilted></_>
    <_>
      <rects>
        <_>
          46 51 3 7 -1.</_>
        <_>
          47 51 1 7 3.</_></rects>
      <tilted>0</tilted></_>
    <_>
      <rects>
        <_>
          47 10 12 18 -1.</_>
        <_>
          51 10 4 18 3.</_></rects>
      <tilted>0</tilted></_>
    <_>
      <rects>
        <_>
          47 44 3 9 -1.</_>
        <_>
          48 44 1 9 3.</_></rects>
      <tilted>0</tilted></_>
    <_>
      <rects>
        <_>
          48 18 4 8 -1.</_>
        <_>
          50 18 2 8 2.</_></rects>
      <tilted>0</tilted></_>
    <_>
      <rects>
        <_>
          48 50 3 6 -1.</_>
        <_>
          49 50 1 6 3.</_></rects>
      <tilted>0</tilted></_>
    <_>
      <rects>
        <_>
          49 21 15 6 -1.</_>
        <_>
          54 21 5 6 3.</_></rects>
      <tilted>0</tilted></_>
    <_>
      <rects>
        <_>
          49 38 18 7 -1.</_>
        <_>
          58 38 9 7 2.</_></rects>
      <tilted>0</tilted></_>
    <_>
      <rects>
        <_>
          49 49 3 5 -1.</_>
        <_>
          50 49 1 5 3.</_></rects>
      <tilted>0</tilted></_>
    <_>
      <rects>
        <_>
          50 15 6 6 -1.</_>
        <_>
          53 15 3 6 2.</_></rects>
      <tilted>0</tilted></_>
    <_>
      <rects>
        <_>
          50 16 4 6 -1.</_>
        <_>
          52 16 2 6 2.</_></rects>
      <tilted>0</tilted></_>
    <_>
      <rects>
        <_>
          50 17 12 9 -1.</_>
        <_>
          54 17 4 9 3.</_></rects>
      <tilted>0</tilted></_>
    <_>
      <rects>
        <_>
          50 23 15 3 -1.</_>
        <_>
          55 23 5 3 3.</_></rects>
      <tilted>0</tilted></_>
    <_>
      <rects>
        <_>
          50 43 14 6 -1.</_>
        <_>
          57 43 7 6 2.</_></rects>
      <tilted>0</tilted></_>
    <_>
      <rects>
        <_>
          51 9 9 19 -1.</_>
        <_>
          54 9 3 19 3.</_></rects>
      <tilted>0</tilted></_>
    <_>
      <rects>
        <_>
          51 40 14 5 -1.</_>
        <_>
          58 40 7 5 2.</_></rects>
      <tilted>0</tilted></_>
    <_>
      <rects>
        <_>
          51 43 3 12 -1.</_>
        <_>
          52 43 1 12 3.</_></rects>
      <tilted>0</tilted></_>
    <_>
      <rects>
        <_>
          51 48 3 4 -1.</_>
        <_>
          52 48 1 4 3.</_></rects>
      <tilted>0</tilted></_>
    <_>
      <rects>
        <_>
          51 49 8 7 -1.</_>
        <_>
          55 49 4 7 2.</_></rects>
      <tilted>0</tilted></_>
    <_>
      <rects>
        <_>
          51 58 7 6 -1.</_>
        <_>
          51 61 7 3 2.</_></rects>
      <tilted>0</tilted></_>
    <_>
      <rects>
        <_>
          52 13 4 30 -1.</_>
        <_>
          52 13 2 15 2.</_>
        <_>
          54 28 2 15 2.</_></rects>
      <tilted>0</tilted></_>
    <_>
      <rects>
        <_>
          52 13 13 27 -1.</_>
        <_>
          52 22 13 9 3.</_></rects>
      <tilted>0</tilted></_>
    <_>
      <rects>
        <_>
          52 41 3 20 -1.</_>
        <_>
          52 51 3 10 2.</_></rects>
      <tilted>0</tilted></_>
    <_>
      <rects>
        <_>
          53 46 10 4 -1.</_>
        <_>
          58 46 5 4 2.</_></rects>
      <tilted>0</tilted></_>
    <_>
      <rects>
        <_>
          54 12 4 12 -1.</_>
        <_>
          56 12 2 12 2.</_></rects>
      <tilted>0</tilted></_>
    <_>
      <rects>
        <_>
          54 25 15 8 -1.</_>
        <_>
          59 25 5 8 3.</_></rects>
      <tilted>0</tilted></_>
    <_>
      <rects>
        <_>
          54 28 1 24 -1.</_>
        <_>
          54 40 1 12 2.</_></rects>
      <tilted>0</tilted></_>
    <_>
      <rects>
        <_>
          54 36 2 30 -1.</_>
        <_>
          54 51 2 15 2.</_></rects>
      <tilted>0</tilted></_>
    <_>
      <rects>
        <_>
          54 41 8 9 -1.</_>
        <_>
          58 41 4 9 2.</_></rects>
      <tilted>0</tilted></_>
    <_>
      <rects>
        <_>
          54 51 4 7 -1.</_>
        <_>
          56 51 2 7 2.</_></rects>
      <tilted>0</tilted></_>
    <_>
      <rects>
        <_>
          55 34 3 22 -1.</_>
        <_>
          56 34 1 22 3.</_></rects>
      <tilted>0</tilted></_>
    <_>
      <rects>
        <_>
          55 43 12 9 -1.</_>
        <_>
          59 43 4 9 3.</_></rects>
      <tilted>0</tilted></_>
    <_>
      <rects>
        <_>
          56 16 15 14 -1.</_>
        <_>
          61 16 5 14 3.</_></rects>
      <tilted>0</tilted></_>
    <_>
      <rects>
        <_>
          56 33 3 23 -1.</_>
        <_>
          57 33 1 23 3.</_></rects>
      <tilted>0</tilted></_>
    <_>
      <rects>
        <_>
          56 39 15 6 -1.</_>
        <_>
          61 39 5 6 3.</_></rects>
      <tilted>0</tilted></_>
    <_>
      <rects>
        <_>
          56 44 12 5 -1.</_>
        <_>
          60 44 4 5 3.</_></rects>
      <tilted>0</tilted></_>
    <_>
      <rects>
        <_>
          56 46 3 6 -1.</_>
        <_>
          57 46 1 6 3.</_></rects>
      <tilted>0</tilted></_>
    <_>
      <rects>
        <_>
          56 48 3 5 -1.</_>
        <_>
          57 48 1 5 3.</_></rects>
      <tilted>0</tilted></_>
    <_>
      <rects>
        <_>
          57 24 4 2 -1.</_>
        <_>
          59 24 2 2 2.</_></rects>
      <tilted>0</tilted></_>
    <_>
      <rects>
        <_>
          57 48 3 4 -1.</_>
        <_>
          58 48 1 4 3.</_></rects>
      <tilted>0</tilted></_>
    <_>
      <rects>
        <_>
          58 16 4 13 -1.</_>
        <_>
          60 16 2 13 2.</_></rects>
      <tilted>0</tilted></_>
    <_>
      <rects>
        <_>
          58 37 15 6 -1.</_>
        <_>
          63 37 5 6 3.</_></rects>
      <tilted>0</tilted></_>
    <_>
      <rects>
        <_>
          58 41 9 9 -1.</_>
        <_>
          61 41 3 9 3.</_></rects>
      <tilted>0</tilted></_>
    <_>
      <rects>
        <_>
          58 50 9 7 -1.</_>
        <_>
          61 50 3 7 3.</_></rects>
      <tilted>0</tilted></_>
    <_>
      <rects>
        <_>
          59 29 15 4 -1.</_>
        <_>
          64 29 5 4 3.</_></rects>
      <tilted>0</tilted></_>
    <_>
      <rects>
        <_>
          59 36 4 13 -1.</_>
        <_>
          61 36 2 13 2.</_></rects>
      <tilted>0</tilted></_>
    <_>
      <rects>
        <_>
          59 46 3 6 -1.</_>
        <_>
          60 46 1 6 3.</_></rects>
      <tilted>0</tilted></_>
    <_>
      <rects>
        <_>
          61 28 4 2 -1.</_>
        <_>
          63 28 2 2 2.</_></rects>
      <tilted>0</tilted></_>
    <_>
      <rects>
        <_>
          61 29 4 3 -1.</_>
        <_>
          63 29 2 3 2.</_></rects>
      <tilted>0</tilted></_>
    <_>
      <rects>
        <_>
          62 28 6 16 -1.</_>
        <_>
          62 28 3 8 2.</_>
        <_>
          65 36 3 8 2.</_></rects>
      <tilted>0</tilted></_>
    <_>
      <rects>
        <_>
          63 30 6 4 -1.</_>
        <_>
          65 30 2 4 3.</_></rects>
      <tilted>0</tilted></_>
    <_>
      <rects>
        <_>
          63 40 16 6 -1.</_>
        <_>
          71 40 8 6 2.</_></rects>
      <tilted>0</tilted></_>
    <_>
      <rects>
        <_>
          63 49 9 3 -1.</_>
        <_>
          66 49 3 3 3.</_></rects>
      <tilted>0</tilted></_>
    <_>
      <rects>
        <_>
          64 36 6 5 -1.</_>
        <_>
          66 36 2 5 3.</_></rects>
      <tilted>0</tilted></_>
    <_>
      <rects>
        <_>
          64 38 16 6 -1.</_>
        <_>
          72 38 8 6 2.</_></rects>
      <tilted>0</tilted></_>
    <_>
      <rects>
        <_>
          65 38 12 12 -1.</_>
        <_>
          69 38 4 12 3.</_></rects>
      <tilted>0</tilted></_>
    <_>
      <rects>
        <_>
          65 41 9 5 -1.</_>
        <_>
          68 41 3 5 3.</_></rects>
      <tilted>0</tilted></_>
    <_>
      <rects>
        <_>
          67 37 4 6 -1.</_>
        <_>
          69 37 2 6 2.</_></rects>
      <tilted>0</tilted></_>
    <_>
      <rects>
        <_>
          67 43 2 3 -1.</_>
        <_>
          68 43 1 3 2.</_></rects>
      <tilted>0</tilted></_>
    <_>
      <rects>
        <_>
          69 37 6 9 -1.</_>
        <_>
          72 37 3 9 2.</_></rects>
      <tilted>0</tilted></_></features></cascade>
</opencv_storage>
