<?xml version="1.0"?>
<opencv_storage>
<stage1>
  <maxWeakCount>10</maxWeakCount>
  <stageThreshold>-8.2542884349822998e-01</stageThreshold>
  <weakClassifiers>
    <_>
      <internalNodes>
        0 -1 17623125 2.0376539032440633e-04</internalNodes>
      <leafValues>
        -4.1925466060638428e-01 5.7799088954925537e-01</leafValues></_>
    <_>
      <internalNodes>
        0 -1 18069847 4.4160505058243871e-04</internalNodes>
      <leafValues>
        -4.8986598849296570e-01 3.4586715698242188e-01</leafValues></_>
    <_>
      <internalNodes>
        0 -1 12523820 -3.8081048987805843e-03</internalNodes>
      <leafValues>
        3.8844627141952515e-01 -3.6471658945083618e-01</leafValues></_>
    <_>
      <internalNodes>
        0 -1 13121410 1.2203535065054893e-02</internalNodes>
      <leafValues>
        1.5800386667251587e-01 -9.4589930772781372e-01</leafValues></_>
    <_>
      <internalNodes>
        0 -1 12516391 -8.4737120196223259e-03</internalNodes>
      <leafValues>
        -8.5010123252868652e-01 1.4434123039245605e-01</leafValues></_>
    <_>
      <internalNodes>
        0 -1 16326848 2.0956719527021050e-04</internalNodes>
      <leafValues>
        1.2391379475593567e-01 -8.8863515853881836e-01</leafValues></_>
    <_>
      <internalNodes>
        0 -1 16321664 -2.6531738694757223e-04</internalNodes>
      <leafValues>
        -8.2794547080993652e-01 1.4991454780101776e-01</leafValues></_>
    <_>
      <internalNodes>
        0 -1 17696372 -6.9990125484764576e-04</internalNodes>
      <leafValues>
        6.1422663927078247e-01 -2.8503119945526123e-01</leafValues></_>
    <_>
      <internalNodes>
        0 -1 16424117 -4.2002401314675808e-03</internalNodes>
      <leafValues>
        6.9203650951385498e-01 -2.4191072583198547e-01</leafValues></_>
    <_>
      <internalNodes>
        0 -1 13107630 1.3119309442117810e-03</internalNodes>
      <leafValues>
        -3.5398596525192261e-01 4.5370787382125854e-01</leafValues></_></weakClassifiers></stage1>
</opencv_storage>
