<?xml version="1.0"?>
<opencv_storage>
<stage13>
  <maxWeakCount>10</maxWeakCount>
  <stageThreshold>-7.7823585271835327e-01</stageThreshold>
  <weakClassifiers>
    <_>
      <internalNodes>
        0 -1 13370493 1.5320923179388046e-02</internalNodes>
      <leafValues>
        4.4444444775581360e-01 -7.2690761089324951e-01</leafValues></_>
    <_>
      <internalNodes>
        0 -1 13090430 1.2563271448016167e-03</internalNodes>
      <leafValues>
        -3.5906702280044556e-01 4.1590377688407898e-01</leafValues></_>
    <_>
      <internalNodes>
        0 -1 15560686 -9.3669183552265167e-03</internalNodes>
      <leafValues>
        6.4232963323593140e-01 -2.4592345952987671e-01</leafValues></_>
    <_>
      <internalNodes>
        0 -1 15812285 5.8384509757161140e-03</internalNodes>
      <leafValues>
        -3.1986847519874573e-01 6.3834023475646973e-01</leafValues></_>
    <_>
      <internalNodes>
        0 -1 14165613 6.1665121465921402e-03</internalNodes>
      <leafValues>
        2.6916813850402832e-01 -7.9041105508804321e-01</leafValues></_>
    <_>
      <internalNodes>
        0 -1 17181024 -3.2262322492897511e-03</internalNodes>
      <leafValues>
        7.1126991510391235e-01 -2.0053105056285858e-01</leafValues></_>
    <_>
      <internalNodes>
        0 -1 15811860 -2.8280862607061863e-03</internalNodes>
      <leafValues>
        6.1310303211212158e-01 -2.3306924104690552e-01</leafValues></_>
    <_>
      <internalNodes>
        0 -1 15778541 1.4730502152815461e-03</internalNodes>
      <leafValues>
        -2.2894988954067230e-01 5.6051063537597656e-01</leafValues></_>
    <_>
      <internalNodes>
        0 -1 15887317 -2.8824614128097892e-04</internalNodes>
      <leafValues>
        -9.0500408411026001e-01 1.6167518496513367e-01</leafValues></_>
    <_>
      <internalNodes>
        0 -1 17274660 7.8085903078317642e-04</internalNodes>
      <leafValues>
        -5.1763916015625000e-01 2.1110427379608154e-01</leafValues></_></weakClassifiers></stage13>
</opencv_storage>
