<?xml version="1.0"?>
<opencv_storage>
<stage0>
  <maxWeakCount>8</maxWeakCount>
  <stageThreshold>-8.6965125799179077e-01</stageThreshold>
  <weakClassifiers>
    <_>
      <internalNodes>
        0 -1 17104717 8.0596643965691328e-04</internalNodes>
      <leafValues>
        -4.5885285735130310e-01 6.8184310197830200e-01</leafValues></_>
    <_>
      <internalNodes>
        0 -1 12486819 -7.9331645974889398e-04</internalNodes>
      <leafValues>
        4.0532499551773071e-01 -6.1409723758697510e-01</leafValues></_>
    <_>
      <internalNodes>
        0 -1 13744770 -4.9387883336748928e-05</internalNodes>
      <leafValues>
        4.3117645382881165e-01 -4.0284019708633423e-01</leafValues></_>
    <_>
      <internalNodes>
        0 -1 15448289 -1.0454179573571309e-04</internalNodes>
      <leafValues>
        3.0680793523788452e-01 -5.2334171533584595e-01</leafValues></_>
    <_>
      <internalNodes>
        0 -1 14713219 2.4020345881581306e-03</internalNodes>
      <leafValues>
        2.2296106815338135e-01 -7.8466755151748657e-01</leafValues></_>
    <_>
      <internalNodes>
        0 -1 18692679 -9.4880713731981814e-05</internalNodes>
      <leafValues>
        4.6741923689842224e-01 -3.5694602131843567e-01</leafValues></_>
    <_>
      <internalNodes>
        0 -1 12808964 -2.5106299668550491e-02</internalNodes>
      <leafValues>
        -8.9363765716552734e-01 1.8803918361663818e-01</leafValues></_>
    <_>
      <internalNodes>
        0 -1 14200475 3.3905655145645142e-03</internalNodes>
      <leafValues>
        2.5106132030487061e-01 -6.5192270278930664e-01</leafValues></_></weakClassifiers></stage0>
</opencv_storage>
