<?xml version="1.0"?>
<opencv_storage>
<stage11>
  <maxWeakCount>12</maxWeakCount>
  <stageThreshold>-9.3973356485366821e-01</stageThreshold>
  <weakClassifiers>
    <_>
      <internalNodes>
        0 -1 12841592 -7.8273378312587738e-03</internalNodes>
      <leafValues>
        -6.8707484006881714e-01 4.6203345060348511e-01</leafValues></_>
    <_>
      <internalNodes>
        0 -1 13943258 1.6482113860547543e-03</internalNodes>
      <leafValues>
        2.9373642802238464e-01 -5.2711206674575806e-01</leafValues></_>
    <_>
      <internalNodes>
        0 -1 17762536 5.6924996897578239e-04</internalNodes>
      <leafValues>
        2.5975301861763000e-01 -4.9664452672004700e-01</leafValues></_>
    <_>
      <internalNodes>
        0 -1 17736246 -3.9137220010161400e-03</internalNodes>
      <leafValues>
        7.4179816246032715e-01 -1.9718389213085175e-01</leafValues></_>
    <_>
      <internalNodes>
        0 -1 19282582 -3.8737038266845047e-05</internalNodes>
      <leafValues>
        4.9405971169471741e-01 -3.2798475027084351e-01</leafValues></_>
    <_>
      <internalNodes>
        0 -1 14114332 -2.7480688877403736e-03</internalNodes>
      <leafValues>
        6.9472771883010864e-01 -1.7919774353504181e-01</leafValues></_>
    <_>
      <internalNodes>
        0 -1 9128004 6.2049562111496925e-03</internalNodes>
      <leafValues>
        -1.9576309621334076e-01 7.0416504144668579e-01</leafValues></_>
    <_>
      <internalNodes>
        0 -1 9996361 -1.3622418045997620e-02</internalNodes>
      <leafValues>
        6.2579196691513062e-01 -1.8033586442470551e-01</leafValues></_>
    <_>
      <internalNodes>
        0 -1 12535251 1.4146193279884756e-04</internalNodes>
      <leafValues>
        -3.3044829964637756e-01 4.0120905637741089e-01</leafValues></_>
    <_>
      <internalNodes>
        0 -1 17928644 1.7484319687355310e-04</internalNodes>
      <leafValues>
        -4.8532804846763611e-01 2.9340344667434692e-01</leafValues></_>
    <_>
      <internalNodes>
        0 -1 18178119 -1.2983899796381593e-04</internalNodes>
      <leafValues>
        5.1677191257476807e-01 -2.6865023374557495e-01</leafValues></_>
    <_>
      <internalNodes>
        0 -1 16348939 1.0129173460882157e-04</internalNodes>
      <leafValues>
        1.8730147182941437e-01 -8.4434580802917480e-01</leafValues></_></weakClassifiers></stage11>
</opencv_storage>
